digraph Tree {
node [shape=box, style="filled, rounded", color="black", fontname=helvetica] ;
edge [fontname=helvetica] ;
0 [label="Glucose <= 157.5\ngini = 0.433\nsamples = 425\nvalue = [290, 135]\nclass = [", fillcolor="#f1bc95"] ;
1 [label="Age <= 28.5\ngini = 0.354\nsamples = 365\nvalue = [281, 84]\nclass = [", fillcolor="#eda774"] ;
0 -> 1 [labeldistance=2.5, labelangle=45, headlabel="True"] ;
2 [label="BMI <= 45.35\ngini = 0.19\nsamples = 217\nvalue = [194, 23]\nclass = [", fillcolor="#e89050"] ;
1 -> 2 ;
3 [label="DiabetesPedigreeFunction <= 1.28\ngini = 0.171\nsamples = 212\nvalue = [192, 20]\nclass = [", fillcolor="#e88e4e"] ;
2 -> 3 ;
4 [label="BMI <= 30.95\ngini = 0.157\nsamples = 209\nvalue = [191, 18]\nclass = [", fillcolor="#e78d4c"] ;
3 -> 4 ;
5 [label="Glucose <= 150.5\ngini = 0.053\nsamples = 110\nvalue = [107, 3]\nclass = [", fillcolor="#e6853f"] ;
4 -> 5 ;
6 [label="Age <= 27.5\ngini = 0.036\nsamples = 108\nvalue = [106, 2]\nclass = [", fillcolor="#e5833d"] ;
5 -> 6 ;
7 [label="DiabetesPedigreeFunction <= 0.672\ngini = 0.019\nsamples = 103\nvalue = [102, 1]\nclass = [", fillcolor="#e5823b"] ;
6 -> 7 ;
8 [label="gini = 0.0\nsamples = 86\nvalue = [86, 0]\nclass = [", fillcolor="#e58139"] ;
7 -> 8 ;
9 [label="DiabetesPedigreeFunction <= 0.685\ngini = 0.111\nsamples = 17\nvalue = [16, 1]\nclass = [", fillcolor="#e78945"] ;
7 -> 9 ;
10 [label="gini = 0.0\nsamples = 1\nvalue = [0, 1]\nclass = 1", fillcolor="#399de5"] ;
9 -> 10 ;
11 [label="gini = 0.0\nsamples = 16\nvalue = [16, 0]\nclass = [", fillcolor="#e58139"] ;
9 -> 11 ;
12 [label="Glucose <= 114.5\ngini = 0.32\nsamples = 5\nvalue = [4, 1]\nclass = [", fillcolor="#eca06a"] ;
6 -> 12 ;
13 [label="gini = 0.0\nsamples = 4\nvalue = [4, 0]\nclass = [", fillcolor="#e58139"] ;
12 -> 13 ;
14 [label="gini = 0.0\nsamples = 1\nvalue = [0, 1]\nclass = 1", fillcolor="#399de5"] ;
12 -> 14 ;
15 [label="Pregnancies <= 1.5\ngini = 0.5\nsamples = 2\nvalue = [1, 1]\nclass = [", fillcolor="#ffffff"] ;
5 -> 15 ;
16 [label="gini = 0.0\nsamples = 1\nvalue = [1, 0]\nclass = [", fillcolor="#e58139"] ;
15 -> 16 ;
17 [label="gini = 0.0\nsamples = 1\nvalue = [0, 1]\nclass = 1", fillcolor="#399de5"] ;
15 -> 17 ;
18 [label="DiabetesPedigreeFunction <= 0.501\ngini = 0.257\nsamples = 99\nvalue = [84, 15]\nclass = [", fillcolor="#ea985c"] ;
4 -> 18 ;
19 [label="BMI <= 31.8\ngini = 0.15\nsamples = 61\nvalue = [56, 5]\nclass = [", fillcolor="#e78c4b"] ;
18 -> 19 ;
20 [label="DiabetesPedigreeFunction <= 0.194\ngini = 0.375\nsamples = 4\nvalue = [1, 3]\nclass = 1", fillcolor="#7bbeee"] ;
19 -> 20 ;
21 [label="gini = 0.0\nsamples = 1\nvalue = [1, 0]\nclass = [", fillcolor="#e58139"] ;
20 -> 21 ;
22 [label="gini = 0.0\nsamples = 3\nvalue = [0, 3]\nclass = 1", fillcolor="#399de5"] ;
20 -> 22 ;
23 [label="Insulin <= 38.0\ngini = 0.068\nsamples = 57\nvalue = [55, 2]\nclass = [", fillcolor="#e68640"] ;
19 -> 23 ;
24 [label="SkinThickness <= 25.5\ngini = 0.245\nsamples = 14\nvalue = [12, 2]\nclass = [", fillcolor="#e9965a"] ;
23 -> 24 ;
25 [label="gini = 0.0\nsamples = 1\nvalue = [0, 1]\nclass = 1", fillcolor="#399de5"] ;
24 -> 25 ;
26 [label="SkinThickness <= 39.0\ngini = 0.142\nsamples = 13\nvalue = [12, 1]\nclass = [", fillcolor="#e78c49"] ;
24 -> 26 ;
27 [label="gini = 0.0\nsamples = 11\nvalue = [11, 0]\nclass = [", fillcolor="#e58139"] ;
26 -> 27 ;
28 [label="BloodPressure <= 75.5\ngini = 0.5\nsamples = 2\nvalue = [1, 1]\nclass = [", fillcolor="#ffffff"] ;
26 -> 28 ;
29 [label="gini = 0.0\nsamples = 1\nvalue = [0, 1]\nclass = 1", fillcolor="#399de5"] ;
28 -> 29 ;
30 [label="gini = 0.0\nsamples = 1\nvalue = [1, 0]\nclass = [", fillcolor="#e58139"] ;
28 -> 30 ;
31 [label="gini = 0.0\nsamples = 43\nvalue = [43, 0]\nclass = [", fillcolor="#e58139"] ;
23 -> 31 ;
32 [label="BloodPressure <= 69.0\ngini = 0.388\nsamples = 38\nvalue = [28, 10]\nclass = [", fillcolor="#eeae80"] ;
18 -> 32 ;
33 [label="Glucose <= 88.5\ngini = 0.49\nsamples = 21\nvalue = [12, 9]\nclass = [", fillcolor="#f8e0ce"] ;
32 -> 33 ;
34 [label="gini = 0.0\nsamples = 6\nvalue = [6, 0]\nclass = [", fillcolor="#e58139"] ;
33 -> 34 ;
35 [label="Glucose <= 116.0\ngini = 0.48\nsamples = 15\nvalue = [6, 9]\nclass = 1", fillcolor="#bddef6"] ;
33 -> 35 ;
36 [label="DiabetesPedigreeFunction <= 0.927\ngini = 0.219\nsamples = 8\nvalue = [1, 7]\nclass = 1", fillcolor="#55abe9"] ;
35 -> 36 ;
37 [label="gini = 0.0\nsamples = 7\nvalue = [0, 7]\nclass = 1", fillcolor="#399de5"] ;
36 -> 37 ;
38 [label="gini = 0.0\nsamples = 1\nvalue = [1, 0]\nclass = [", fillcolor="#e58139"] ;
36 -> 38 ;
39 [label="Insulin <= 166.0\ngini = 0.408\nsamples = 7\nvalue = [5, 2]\nclass = [", fillcolor="#efb388"] ;
35 -> 39 ;
40 [label="gini = 0.0\nsamples = 4\nvalue = [4, 0]\nclass = [", fillcolor="#e58139"] ;
39 -> 40 ;
41 [label="BloodPressure <= 61.0\ngini = 0.444\nsamples = 3\nvalue = [1, 2]\nclass = 1", fillcolor="#9ccef2"] ;
39 -> 41 ;
42 [label="gini = 0.0\nsamples = 2\nvalue = [0, 2]\nclass = 1", fillcolor="#399de5"] ;
41 -> 42 ;
43 [label="gini = 0.0\nsamples = 1\nvalue = [1, 0]\nclass = [", fillcolor="#e58139"] ;
41 -> 43 ;
44 [label="DiabetesPedigreeFunction <= 0.57\ngini = 0.111\nsamples = 17\nvalue = [16, 1]\nclass = [", fillcolor="#e78945"] ;
32 -> 44 ;
45 [label="Pregnancies <= 2.0\ngini = 0.5\nsamples = 2\nvalue = [1, 1]\nclass = [", fillcolor="#ffffff"] ;
44 -> 45 ;
46 [label="gini = 0.0\nsamples = 1\nvalue = [1, 0]\nclass = [", fillcolor="#e58139"] ;
45 -> 46 ;
47 [label="gini = 0.0\nsamples = 1\nvalue = [0, 1]\nclass = 1", fillcolor="#399de5"] ;
45 -> 47 ;
48 [label="gini = 0.0\nsamples = 15\nvalue = [15, 0]\nclass = [", fillcolor="#e58139"] ;
44 -> 48 ;
49 [label="BloodPressure <= 60.0\ngini = 0.444\nsamples = 3\nvalue = [1, 2]\nclass = 1", fillcolor="#9ccef2"] ;
3 -> 49 ;
50 [label="gini = 0.0\nsamples = 1\nvalue = [1, 0]\nclass = [", fillcolor="#e58139"] ;
49 -> 50 ;
51 [label="gini = 0.0\nsamples = 2\nvalue = [0, 2]\nclass = 1", fillcolor="#399de5"] ;
49 -> 51 ;
52 [label="Pregnancies <= 2.5\ngini = 0.48\nsamples = 5\nvalue = [2, 3]\nclass = 1", fillcolor="#bddef6"] ;
2 -> 52 ;
53 [label="gini = 0.0\nsamples = 3\nvalue = [0, 3]\nclass = 1", fillcolor="#399de5"] ;
52 -> 53 ;
54 [label="gini = 0.0\nsamples = 2\nvalue = [2, 0]\nclass = [", fillcolor="#e58139"] ;
52 -> 54 ;
55 [label="BMI <= 26.35\ngini = 0.485\nsamples = 148\nvalue = [87, 61]\nclass = [", fillcolor="#f7d9c4"] ;
1 -> 55 ;
56 [label="gini = 0.0\nsamples = 18\nvalue = [18, 0]\nclass = [", fillcolor="#e58139"] ;
55 -> 56 ;
57 [label="DiabetesPedigreeFunction <= 0.623\ngini = 0.498\nsamples = 130\nvalue = [69, 61]\nclass = [", fillcolor="#fcf0e8"] ;
55 -> 57 ;
58 [label="Insulin <= 126.5\ngini = 0.461\nsamples = 86\nvalue = [55, 31]\nclass = [", fillcolor="#f4c8a9"] ;
57 -> 58 ;
59 [label="BMI <= 29.15\ngini = 0.38\nsamples = 55\nvalue = [41, 14]\nclass = [", fillcolor="#eeac7d"] ;
58 -> 59 ;
60 [label="SkinThickness <= 19.5\ngini = 0.5\nsamples = 12\nvalue = [6, 6]\nclass = [", fillcolor="#ffffff"] ;
59 -> 60 ;
61 [label="gini = 0.0\nsamples = 4\nvalue = [4, 0]\nclass = [", fillcolor="#e58139"] ;
60 -> 61 ;
62 [label="Glucose <= 102.5\ngini = 0.375\nsamples = 8\nvalue = [2, 6]\nclass = 1", fillcolor="#7bbeee"] ;
60 -> 62 ;
63 [label="gini = 0.0\nsamples = 2\nvalue = [2, 0]\nclass = [", fillcolor="#e58139"] ;
62 -> 63 ;
64 [label="gini = 0.0\nsamples = 6\nvalue = [0, 6]\nclass = 1", fillcolor="#399de5"] ;
62 -> 64 ;
65 [label="Age <= 42.5\ngini = 0.303\nsamples = 43\nvalue = [35, 8]\nclass = [", fillcolor="#eb9e66"] ;
59 -> 65 ;
66 [label="BMI <= 38.4\ngini = 0.137\nsamples = 27\nvalue = [25, 2]\nclass = [", fillcolor="#e78b49"] ;
65 -> 66 ;
67 [label="gini = 0.0\nsamples = 20\nvalue = [20, 0]\nclass = [", fillcolor="#e58139"] ;
66 -> 67 ;
68 [label="DiabetesPedigreeFunction <= 0.315\ngini = 0.408\nsamples = 7\nvalue = [5, 2]\nclass = [", fillcolor="#efb388"] ;
66 -> 68 ;
69 [label="gini = 0.0\nsamples = 5\nvalue = [5, 0]\nclass = [", fillcolor="#e58139"] ;
68 -> 69 ;
70 [label="gini = 0.0\nsamples = 2\nvalue = [0, 2]\nclass = 1", fillcolor="#399de5"] ;
68 -> 70 ;
71 [label="Age <= 44.0\ngini = 0.469\nsamples = 16\nvalue = [10, 6]\nclass = [", fillcolor="#f5cdb0"] ;
65 -> 71 ;
72 [label="gini = 0.0\nsamples = 2\nvalue = [0, 2]\nclass = 1", fillcolor="#399de5"] ;
71 -> 72 ;
73 [label="Insulin <= 24.5\ngini = 0.408\nsamples = 14\nvalue = [10, 4]\nclass = [", fillcolor="#efb388"] ;
71 -> 73 ;
74 [label="DiabetesPedigreeFunction <= 0.218\ngini = 0.5\nsamples = 8\nvalue = [4, 4]\nclass = [", fillcolor="#ffffff"] ;
73 -> 74 ;
75 [label="gini = 0.0\nsamples = 2\nvalue = [2, 0]\nclass = [", fillcolor="#e58139"] ;
74 -> 75 ;
76 [label="Pregnancies <= 3.5\ngini = 0.444\nsamples = 6\nvalue = [2, 4]\nclass = 1", fillcolor="#9ccef2"] ;
74 -> 76 ;
77 [label="gini = 0.0\nsamples = 1\nvalue = [1, 0]\nclass = [", fillcolor="#e58139"] ;
76 -> 77 ;
78 [label="DiabetesPedigreeFunction <= 0.462\ngini = 0.32\nsamples = 5\nvalue = [1, 4]\nclass = 1", fillcolor="#6ab6ec"] ;
76 -> 78 ;
79 [label="gini = 0.0\nsamples = 4\nvalue = [0, 4]\nclass = 1", fillcolor="#399de5"] ;
78 -> 79 ;
80 [label="gini = 0.0\nsamples = 1\nvalue = [1, 0]\nclass = [", fillcolor="#e58139"] ;
78 -> 80 ;
81 [label="gini = 0.0\nsamples = 6\nvalue = [6, 0]\nclass = [", fillcolor="#e58139"] ;
73 -> 81 ;
82 [label="BloodPressure <= 77.0\ngini = 0.495\nsamples = 31\nvalue = [14, 17]\nclass = 1", fillcolor="#dceefa"] ;
58 -> 82 ;
83 [label="Age <= 29.5\ngini = 0.43\nsamples = 16\nvalue = [11, 5]\nclass = [", fillcolor="#f1ba93"] ;
82 -> 83 ;
84 [label="gini = 0.0\nsamples = 2\nvalue = [0, 2]\nclass = 1", fillcolor="#399de5"] ;
83 -> 84 ;
85 [label="Glucose <= 148.0\ngini = 0.337\nsamples = 14\nvalue = [11, 3]\nclass = [", fillcolor="#eca36f"] ;
83 -> 85 ;
86 [label="Pregnancies <= 0.5\ngini = 0.165\nsamples = 11\nvalue = [10, 1]\nclass = [", fillcolor="#e88e4d"] ;
85 -> 86 ;
87 [label="gini = 0.0\nsamples = 1\nvalue = [0, 1]\nclass = 1", fillcolor="#399de5"] ;
86 -> 87 ;
88 [label="gini = 0.0\nsamples = 10\nvalue = [10, 0]\nclass = [", fillcolor="#e58139"] ;
86 -> 88 ;
89 [label="BloodPressure <= 71.0\ngini = 0.444\nsamples = 3\nvalue = [1, 2]\nclass = 1", fillcolor="#9ccef2"] ;
85 -> 89 ;
90 [label="gini = 0.0\nsamples = 2\nvalue = [0, 2]\nclass = 1", fillcolor="#399de5"] ;
89 -> 90 ;
91 [label="gini = 0.0\nsamples = 1\nvalue = [1, 0]\nclass = [", fillcolor="#e58139"] ;
89 -> 91 ;
92 [label="SkinThickness <= 19.5\ngini = 0.32\nsamples = 15\nvalue = [3, 12]\nclass = 1", fillcolor="#6ab6ec"] ;
82 -> 92 ;
93 [label="gini = 0.0\nsamples = 2\nvalue = [2, 0]\nclass = [", fillcolor="#e58139"] ;
92 -> 93 ;
94 [label="Insulin <= 512.5\ngini = 0.142\nsamples = 13\nvalue = [1, 12]\nclass = 1", fillcolor="#49a5e7"] ;
92 -> 94 ;
95 [label="gini = 0.0\nsamples = 12\nvalue = [0, 12]\nclass = 1", fillcolor="#399de5"] ;
94 -> 95 ;
96 [label="gini = 0.0\nsamples = 1\nvalue = [1, 0]\nclass = [", fillcolor="#e58139"] ;
94 -> 96 ;
97 [label="Glucose <= 96.5\ngini = 0.434\nsamples = 44\nvalue = [14, 30]\nclass = 1", fillcolor="#95cbf1"] ;
57 -> 97 ;
98 [label="Insulin <= 24.5\ngini = 0.444\nsamples = 9\nvalue = [6, 3]\nclass = [", fillcolor="#f2c09c"] ;
97 -> 98 ;
99 [label="gini = 0.0\nsamples = 2\nvalue = [0, 2]\nclass = 1", fillcolor="#399de5"] ;
98 -> 99 ;
100 [label="BMI <= 30.45\ngini = 0.245\nsamples = 7\nvalue = [6, 1]\nclass = [", fillcolor="#e9965a"] ;
98 -> 100 ;
101 [label="gini = 0.0\nsamples = 1\nvalue = [0, 1]\nclass = 1", fillcolor="#399de5"] ;
100 -> 101 ;
102 [label="gini = 0.0\nsamples = 6\nvalue = [6, 0]\nclass = [", fillcolor="#e58139"] ;
100 -> 102 ;
103 [label="BloodPressure <= 69.0\ngini = 0.353\nsamples = 35\nvalue = [8, 27]\nclass = 1", fillcolor="#74baed"] ;
97 -> 103 ;
104 [label="Age <= 33.5\ngini = 0.49\nsamples = 7\nvalue = [4, 3]\nclass = [", fillcolor="#f8e0ce"] ;
103 -> 104 ;
105 [label="Glucose <= 113.5\ngini = 0.375\nsamples = 4\nvalue = [1, 3]\nclass = 1", fillcolor="#7bbeee"] ;
104 -> 105 ;
106 [label="gini = 0.0\nsamples = 1\nvalue = [1, 0]\nclass = [", fillcolor="#e58139"] ;
105 -> 106 ;
107 [label="gini = 0.0\nsamples = 3\nvalue = [0, 3]\nclass = 1", fillcolor="#399de5"] ;
105 -> 107 ;
108 [label="gini = 0.0\nsamples = 3\nvalue = [3, 0]\nclass = [", fillcolor="#e58139"] ;
104 -> 108 ;
109 [label="Glucose <= 152.5\ngini = 0.245\nsamples = 28\nvalue = [4, 24]\nclass = 1", fillcolor="#5aade9"] ;
103 -> 109 ;
110 [label="SkinThickness <= 47.5\ngini = 0.147\nsamples = 25\nvalue = [2, 23]\nclass = 1", fillcolor="#4aa6e7"] ;
109 -> 110 ;
111 [label="gini = 0.0\nsamples = 22\nvalue = [0, 22]\nclass = 1", fillcolor="#399de5"] ;
110 -> 111 ;
112 [label="Glucose <= 124.5\ngini = 0.444\nsamples = 3\nvalue = [2, 1]\nclass = [", fillcolor="#f2c09c"] ;
110 -> 112 ;
113 [label="gini = 0.0\nsamples = 2\nvalue = [2, 0]\nclass = [", fillcolor="#e58139"] ;
112 -> 113 ;
114 [label="gini = 0.0\nsamples = 1\nvalue = [0, 1]\nclass = 1", fillcolor="#399de5"] ;
112 -> 114 ;
115 [label="Age <= 40.5\ngini = 0.444\nsamples = 3\nvalue = [2, 1]\nclass = [", fillcolor="#f2c09c"] ;
109 -> 115 ;
116 [label="gini = 0.0\nsamples = 2\nvalue = [2, 0]\nclass = [", fillcolor="#e58139"] ;
115 -> 116 ;
117 [label="gini = 0.0\nsamples = 1\nvalue = [0, 1]\nclass = 1", fillcolor="#399de5"] ;
115 -> 117 ;
118 [label="Insulin <= 629.5\ngini = 0.255\nsamples = 60\nvalue = [9, 51]\nclass = 1", fillcolor="#5caeea"] ;
0 -> 118 [labeldistance=2.5, labelangle=-45, headlabel="False"] ;
119 [label="BMI <= 34.35\ngini = 0.215\nsamples = 57\nvalue = [7, 50]\nclass = 1", fillcolor="#55abe9"] ;
118 -> 119 ;
120 [label="Insulin <= 87.5\ngini = 0.384\nsamples = 27\nvalue = [7, 20]\nclass = 1", fillcolor="#7ebfee"] ;
119 -> 120 ;
121 [label="Pregnancies <= 8.0\ngini = 0.444\nsamples = 6\nvalue = [4, 2]\nclass = [", fillcolor="#f2c09c"] ;
120 -> 121 ;
122 [label="gini = 0.0\nsamples = 4\nvalue = [4, 0]\nclass = [", fillcolor="#e58139"] ;
121 -> 122 ;
123 [label="gini = 0.0\nsamples = 2\nvalue = [0, 2]\nclass = 1", fillcolor="#399de5"] ;
121 -> 123 ;
124 [label="SkinThickness <= 13.5\ngini = 0.245\nsamples = 21\nvalue = [3, 18]\nclass = 1", fillcolor="#5aade9"] ;
120 -> 124 ;
125 [label="gini = 0.0\nsamples = 1\nvalue = [1, 0]\nclass = [", fillcolor="#e58139"] ;
124 -> 125 ;
126 [label="BloodPressure <= 69.0\ngini = 0.18\nsamples = 20\nvalue = [2, 18]\nclass = 1", fillcolor="#4fa8e8"] ;
124 -> 126 ;
127 [label="BloodPressure <= 66.0\ngini = 0.408\nsamples = 7\nvalue = [2, 5]\nclass = 1", fillcolor="#88c4ef"] ;
126 -> 127 ;
128 [label="gini = 0.0\nsamples = 4\nvalue = [0, 4]\nclass = 1", fillcolor="#399de5"] ;
127 -> 128 ;
129 [label="Pregnancies <= 8.0\ngini = 0.444\nsamples = 3\nvalue = [2, 1]\nclass = [", fillcolor="#f2c09c"] ;
127 -> 129 ;
130 [label="gini = 0.0\nsamples = 2\nvalue = [2, 0]\nclass = [", fillcolor="#e58139"] ;
129 -> 130 ;
131 [label="gini = 0.0\nsamples = 1\nvalue = [0, 1]\nclass = 1", fillcolor="#399de5"] ;
129 -> 131 ;
132 [label="gini = 0.0\nsamples = 13\nvalue = [0, 13]\nclass = 1", fillcolor="#399de5"] ;
126 -> 132 ;
133 [label="gini = 0.0\nsamples = 30\nvalue = [0, 30]\nclass = 1", fillcolor="#399de5"] ;
119 -> 133 ;
134 [label="Age <= 45.0\ngini = 0.444\nsamples = 3\nvalue = [2, 1]\nclass = [", fillcolor="#f2c09c"] ;
118 -> 134 ;
135 [label="gini = 0.0\nsamples = 2\nvalue = [2, 0]\nclass = [", fillcolor="#e58139"] ;
134 -> 135 ;
136 [label="gini = 0.0\nsamples = 1\nvalue = [0, 1]\nclass = 1", fillcolor="#399de5"] ;
134 -> 136 ;
}